<?xml version="1.0"?>
<PMML version="4.4" xmlns="http://www.dmg.org/PMML-4_4" xmlns:xsi="http://www.w3.org/2001/XMLSchema-instance" xsi:schemaLocation="http://www.dmg.org/PMML-4_4 http://www.dmg.org/pmml/v4-4/pmml-4-4.xsd">
 <Header copyright="Copyright (c) 2020 pablo" description="Support Vector Machine Model">
  <Extension name="user" value="pablo" extender="SoftwareAG PMML Generator"/>
  <Application name="SoftwareAG PMML Generator" version="2.3.0"/>
  <Timestamp>2020-04-02 21:12:08</Timestamp>
 </Header>
 <DataDictionary numberOfFields="8">
  <DataField name="TFC_Survived" optype="categorical" dataType="string"/>
  <DataField name="Age" optype="continuous" dataType="double"/>
  <DataField name="SibSp" optype="continuous" dataType="double"/>
  <DataField name="Parch" optype="continuous" dataType="double"/>
  <DataField name="Fare" optype="continuous" dataType="double"/>
  <DataField name="Embarked" optype="categorical" dataType="string">
   <Value value="S"/>
   <Value value="C"/>
   <Value value="Q"/>
   <Value value=""/>
  </DataField>
  <DataField name="TFC_Pclass" optype="categorical" dataType="string">
   <Value value="(2,3]"/>
   <Value value="[1,1]"/>
   <Value value="(1,2]"/>
  </DataField>
  <DataField name="TFC_R01_TNM_Sex" optype="categorical" dataType="string">
   <Value value="(0,1]"/>
   <Value value="[0,0]"/>
  </DataField>
 </DataDictionary>
 <SupportVectorMachineModel modelName="SVM_model" functionName="classification" algorithmName="supportVectorMachine" svmRepresentation="SupportVectors">
  <MiningSchema>
   <MiningField name="TFC_Survived" usageType="predicted" invalidValueTreatment="returnInvalid"/>
   <MiningField name="Age" usageType="active" invalidValueTreatment="returnInvalid"/>
   <MiningField name="SibSp" usageType="active" invalidValueTreatment="returnInvalid"/>
   <MiningField name="Parch" usageType="active" invalidValueTreatment="returnInvalid"/>
   <MiningField name="Fare" usageType="active" invalidValueTreatment="returnInvalid"/>
   <MiningField name="Embarked" usageType="active" invalidValueTreatment="returnInvalid"/>
   <MiningField name="TFC_Pclass" usageType="active" invalidValueTreatment="returnInvalid"/>
   <MiningField name="TFC_R01_TNM_Sex" usageType="active" invalidValueTreatment="returnInvalid"/>
  </MiningSchema>
  <Output>
   <OutputField name="Predicted_TFC_Survived" optype="categorical" dataType="string" feature="predictedValue"/>
   <OutputField name="Probability_[0,0]" optype="continuous" dataType="double" feature="probability" value="[0,0]"/>
   <OutputField name="Probability_(0,1]" optype="continuous" dataType="double" feature="probability" value="(0,1]"/>
  </Output>
  <LocalTransformations>
   <DerivedField name="derived_Age" optype="continuous" dataType="double">
    <NormContinuous field="Age">
     <LinearNorm orig="0" norm="-2.03128370870889"/>
     <LinearNorm orig="30.3647416413374" norm="0"/>
    </NormContinuous>
   </DerivedField>
   <DerivedField name="derived_SibSp" optype="continuous" dataType="double">
    <NormContinuous field="SibSp">
     <LinearNorm orig="0" norm="-0.574744247022924"/>
     <LinearNorm orig="0.556231003039514" norm="0"/>
    </NormContinuous>
   </DerivedField>
   <DerivedField name="derived_Parch" optype="continuous" dataType="double">
    <NormContinuous field="Parch">
     <LinearNorm orig="0" norm="-0.558327232311067"/>
     <LinearNorm orig="0.443768996960486" norm="0"/>
    </NormContinuous>
   </DerivedField>
   <DerivedField name="derived_Fare" optype="continuous" dataType="double">
    <NormContinuous field="Fare">
     <LinearNorm orig="0" norm="-0.689269480058089"/>
     <LinearNorm orig="36.2033045592705" norm="0"/>
    </NormContinuous>
   </DerivedField>
   <DerivedField name="derived_Embarked" optype="continuous" dataType="double">
    <NormDiscrete field="Embarked" value=""/>
   </DerivedField>
   <DerivedField name="derived_EmbarkedC" optype="continuous" dataType="double">
    <NormDiscrete field="Embarked" value="C"/>
   </DerivedField>
   <DerivedField name="derived_EmbarkedQ" optype="continuous" dataType="double">
    <NormDiscrete field="Embarked" value="Q"/>
   </DerivedField>
   <DerivedField name="derived_EmbarkedS" optype="continuous" dataType="double">
    <NormDiscrete field="Embarked" value="S"/>
   </DerivedField>
   <DerivedField name="derived_TFC_Pclass[1,1]" optype="continuous" dataType="double">
    <NormDiscrete field="TFC_Pclass" value="[1,1]"/>
   </DerivedField>
   <DerivedField name="derived_TFC_Pclass(1,2]" optype="continuous" dataType="double">
    <NormDiscrete field="TFC_Pclass" value="(1,2]"/>
   </DerivedField>
   <DerivedField name="derived_TFC_Pclass(2,3]" optype="continuous" dataType="double">
    <NormDiscrete field="TFC_Pclass" value="(2,3]"/>
   </DerivedField>
   <DerivedField name="derived_TFC_R01_TNM_Sex[0,0]" optype="continuous" dataType="double">
    <NormDiscrete field="TFC_R01_TNM_Sex" value="[0,0]"/>
   </DerivedField>
   <DerivedField name="derived_TFC_R01_TNM_Sex(0,1]" optype="continuous" dataType="double">
    <NormDiscrete field="TFC_R01_TNM_Sex" value="(0,1]"/>
   </DerivedField>
  </LocalTransformations>
  <RadialBasisKernelType gamma="0.228175271870512" description="Radial basis kernel type"/>
  <VectorDictionary numberOfVectors="196">
   <VectorFields numberOfFields="11">
    <FieldRef field="derived_Age"/>
    <FieldRef field="derived_SibSp"/>
    <FieldRef field="derived_Parch"/>
    <FieldRef field="derived_Fare"/>
    <FieldRef field="derived_Embarked"/>
    <FieldRef field="derived_EmbarkedC"/>
    <FieldRef field="derived_EmbarkedQ"/>
    <FieldRef field="derived_EmbarkedS"/>
    <FieldRef field="derived_TFC_Pclass(1,2]"/>
    <FieldRef field="derived_TFC_Pclass(2,3]"/>
    <FieldRef field="derived_TFC_R01_TNM_Sex(0,1]"/>
   </VectorFields>
   <VectorInstance id="1">
    <REAL-SparseArray n="11">
     <Indices>1 2 3 4 5 6 7 8 9 10 11 </Indices>
     <REAL-Entries>-0.559568845482169 -0.574744247022924 -0.558327232311067 -0.541242379419306 0 0 0 1 0 1 0 </REAL-Entries>
    </REAL-SparseArray>
   </VectorInstance>
   <VectorInstance id="2">
    <REAL-SparseArray n="11">
     <Indices>1 2 3 4 5 6 7 8 9 10 11 </Indices>
     <REAL-Entries>0.979042147891223 0.458539126040147 4.47426617673937 -0.158085414743357 0 0 0 1 0 1 0 </REAL-Entries>
    </REAL-SparseArray>
   </VectorInstance>
   <VectorInstance id="3">
    <REAL-SparseArray n="11">
     <Indices>1 2 3 4 5 6 7 8 9 10 11 </Indices>
     <REAL-Entries>-1.83059531826888 2.52510587216629 0.699821119951543 -0.288025602763896 0 0 0 1 0 1 0 </REAL-Entries>
    </REAL-SparseArray>
   </VectorInstance>
   <VectorInstance id="4">
    <REAL-SparseArray n="11">
     <Indices>1 2 3 4 5 6 7 8 9 10 11 </Indices>
     <REAL-Entries>1.31352279862457 -0.574744247022924 0.699821119951543 4.02324323657111 0 1 0 0 0 0 0 </REAL-Entries>
    </REAL-SparseArray>
   </VectorInstance>
   <VectorInstance id="5">
    <REAL-SparseArray n="11">
     <Indices>1 2 3 4 5 6 7 8 9 10 11 </Indices>
     <REAL-Entries>-0.0912959344554847 -0.574744247022924 -0.558327232311067 -0.508400353875653 0 0 0 1 0 1 1 </REAL-Entries>
    </REAL-SparseArray>
   </VectorInstance>
   <VectorInstance id="6">
    <REAL-SparseArray n="11">
     <Indices>1 2 3 4 5 6 7 8 9 10 11 </Indices>
     <REAL-Entries>0.778353757451215 -0.574744247022924 -0.558327232311067 3.64254609201124 0 1 0 0 0 0 0 </REAL-Entries>
    </REAL-SparseArray>
   </VectorInstance>
   <VectorInstance id="7">
    <REAL-SparseArray n="11">
     <Indices>1 2 3 4 5 6 7 8 9 10 11 </Indices>
     <REAL-Entries>1.44731505891791 0.458539126040147 0.699821119951543 0.827175351566226 0 0 0 1 0 0 1 </REAL-Entries>
    </REAL-SparseArray>
   </VectorInstance>
   <VectorInstance id="8">
    <REAL-SparseArray n="11">
     <Indices>1 2 3 4 5 6 7 8 9 10 11 </Indices>
     <REAL-Entries>-0.760257235922177 0.458539126040147 0.699821119951543 0.0104084554371225 0 0 0 1 1 0 1 </REAL-Entries>
    </REAL-SparseArray>
   </VectorInstance>
   <VectorInstance id="9">
    <REAL-SparseArray n="11">
     <Indices>1 2 3 4 5 6 7 8 9 10 11 </Indices>
     <REAL-Entries>0.3769769765712 -0.574744247022924 1.95796947221415 0.662489252463272 0 0 0 1 0 0 0 </REAL-Entries>
    </REAL-SparseArray>
   </VectorInstance>
   <VectorInstance id="10">
    <REAL-SparseArray n="11">
     <Indices>1 2 3 4 5 6 7 8 9 10 11 </Indices>
     <REAL-Entries>-0.358880455042161 0.458539126040147 -0.558327232311067 -0.541242379419306 0 0 0 1 0 1 1 </REAL-Entries>
    </REAL-SparseArray>
   </VectorInstance>
   <VectorInstance id="11">
    <REAL-SparseArray n="11">
     <Indices>1 2 3 4 5 6 7 8 9 10 11 </Indices>
     <REAL-Entries>-0.425776585188831 0.458539126040147 -0.558327232311067 -0.194259239979844 0 0 0 1 1 0 0 </REAL-Entries>
    </REAL-SparseArray>
   </VectorInstance>
   <VectorInstance id="12">
    <REAL-SparseArray n="11">
     <Indices>1 2 3 4 5 6 7 8 9 10 11 </Indices>
     <REAL-Entries>0.3769769765712 -0.574744247022924 -0.558327232311067 -0.188785569055902 0 0 0 1 0 0 1 </REAL-Entries>
    </REAL-SparseArray>
   </VectorInstance>
   <VectorInstance id="13">
    <REAL-SparseArray n="11">
     <Indices>1 2 3 4 5 6 7 8 9 10 11 </Indices>
     <REAL-Entries>0.3769769765712 0.458539126040147 -0.558327232311067 -0.357993396313417 0 0 0 1 0 1 0 </REAL-Entries>
    </REAL-SparseArray>
   </VectorInstance>
   <VectorInstance id="14">
    <REAL-SparseArray n="11">
     <Indices>1 2 3 4 5 6 7 8 9 10 11 </Indices>
     <REAL-Entries>-0.225088194748823 -0.574744247022924 -0.558327232311067 -0.538386551111162 0 0 0 1 0 1 0 </REAL-Entries>
    </REAL-SparseArray>
   </VectorInstance>
   <VectorInstance id="15">
    <REAL-SparseArray n="11">
     <Indices>1 2 3 4 5 6 7 8 9 10 11 </Indices>
     <REAL-Entries>-0.827153366068846 0.458539126040147 -0.558327232311067 1.38406187165425 0 1 0 0 0 0 1 </REAL-Entries>
    </REAL-SparseArray>
   </VectorInstance>
   <VectorInstance id="16">
    <REAL-SparseArray n="11">
     <Indices>1 2 3 4 5 6 7 8 9 10 11 </Indices>
     <REAL-Entries>-0.358880455042161 -0.574744247022924 -0.558327232311067 -0.541242379419306 0 0 0 1 0 1 0 </REAL-Entries>
    </REAL-SparseArray>
   </VectorInstance>
   <VectorInstance id="17">
    <REAL-SparseArray n="11">
     <Indices>1 2 3 4 5 6 7 8 9 10 11 </Indices>
     <REAL-Entries>0.243184716277861 -0.574744247022924 -0.558327232311067 -0.536006694187709 0 0 0 1 0 1 1 </REAL-Entries>
    </REAL-SparseArray>
   </VectorInstance>
   <VectorInstance id="18">
    <REAL-SparseArray n="11">
     <Indices>1 2 3 4 5 6 7 8 9 10 11 </Indices>
     <REAL-Entries>-0.559568845482169 -0.574744247022924 -0.558327232311067 -0.551237778497809 0 0 0 1 0 1 0 </REAL-Entries>
    </REAL-SparseArray>
   </VectorInstance>
   <VectorInstance id="19">
    <REAL-SparseArray n="11">
     <Indices>1 2 3 4 5 6 7 8 9 10 11 </Indices>
     <REAL-Entries>-0.0243998043088155 -0.574744247022924 -0.558327232311067 -0.160941243051501 0 1 0 0 0 0 1 </REAL-Entries>
    </REAL-SparseArray>
   </VectorInstance>
   <VectorInstance id="20">
    <REAL-SparseArray n="11">
     <Indices>1 2 3 4 5 6 7 8 9 10 11 </Indices>
     <REAL-Entries>0.310080846424531 0.458539126040147 -0.558327232311067 0.321693741024788 0 0 0 1 0 0 0 </REAL-Entries>
    </REAL-SparseArray>
   </VectorInstance>
   <VectorInstance id="21">
    <REAL-SparseArray n="11">
     <Indices>1 2 3 4 5 6 7 8 9 10 11 </Indices>
     <REAL-Entries>0.0424963258378537 0.458539126040147 0.699821119951543 -0.29849697322709 0 0 0 1 0 1 0 </REAL-Entries>
    </REAL-SparseArray>
   </VectorInstance>
   <VectorInstance id="22">
    <REAL-SparseArray n="11">
     <Indices>1 2 3 4 5 6 7 8 9 10 11 </Indices>
     <REAL-Entries>-1.89749144841555 -0.574744247022924 0.699821119951543 -0.490075455565064 0 0 0 1 0 1 0 </REAL-Entries>
    </REAL-SparseArray>
   </VectorInstance>
   <VectorInstance id="23">
    <REAL-SparseArray n="11">
     <Indices>1 2 3 4 5 6 7 8 9 10 11 </Indices>
     <REAL-Entries>0.0424963258378537 0.458539126040147 -0.558327232311067 -0.346570083080842 0 0 0 1 0 1 0 </REAL-Entries>
    </REAL-SparseArray>
   </VectorInstance>
   <VectorInstance id="24">
    <REAL-SparseArray n="11">
     <Indices>1 2 3 4 5 6 7 8 9 10 11 </Indices>
     <REAL-Entries>0.912146017744553 -0.574744247022924 0.699821119951543 0.414588124232087 0 1 0 0 0 0 0 </REAL-Entries>
    </REAL-SparseArray>
   </VectorInstance>
   <VectorInstance id="25">
    <REAL-SparseArray n="11">
     <Indices>1 2 3 4 5 6 7 8 9 10 11 </Indices>
     <REAL-Entries>-0.827153366068846 -0.574744247022924 -0.558327232311067 -0.441764360018966 0 0 0 1 1 0 1 </REAL-Entries>
    </REAL-SparseArray>
   </VectorInstance>
   <VectorInstance id="26">
    <REAL-SparseArray n="11">
     <Indices>1 2 3 4 5 6 7 8 9 10 11 </Indices>
     <REAL-Entries>0.109392455984523 -0.574744247022924 -0.558327232311067 -0.539734502072606 0 0 0 1 0 1 1 </REAL-Entries>
    </REAL-SparseArray>
   </VectorInstance>
   <VectorInstance id="27">
    <REAL-SparseArray n="11">
     <Indices>1 2 3 4 5 6 7 8 9 10 11 </Indices>
     <REAL-Entries>-0.4926727153355 -0.574744247022924 -0.558327232311067 -0.426691298208584 0 1 0 0 1 0 0 </REAL-Entries>
    </REAL-SparseArray>
   </VectorInstance>
   <VectorInstance id="28">
    <REAL-SparseArray n="11">
     <Indices>1 2 3 4 5 6 7 8 9 10 11 </Indices>
     <REAL-Entries>0.979042147891223 -0.574744247022924 -0.558327232311067 -0.536006694187709 0 0 0 1 0 1 1 </REAL-Entries>
    </REAL-SparseArray>
   </VectorInstance>
   <VectorInstance id="29">
    <REAL-SparseArray n="11">
     <Indices>1 2 3 4 5 6 7 8 9 10 11 </Indices>
     <REAL-Entries>1.11283440818456 -0.574744247022924 -0.558327232311067 -0.0415523886867831 0 0 0 1 0 0 1 </REAL-Entries>
    </REAL-SparseArray>
   </VectorInstance>
   <VectorInstance id="30">
    <REAL-SparseArray n="11">
     <Indices>1 2 3 4 5 6 7 8 9 10 11 </Indices>
     <REAL-Entries>0.3769769765712 -0.574744247022924 -0.558327232311067 1.89303330438824 0 1 0 0 0 0 0 </REAL-Entries>
    </REAL-SparseArray>
   </VectorInstance>
   <VectorInstance id="31">
    <REAL-SparseArray n="11">
     <Indices>1 2 3 4 5 6 7 8 9 10 11 </Indices>
     <REAL-Entries>-1.42921853738887 3.55838924522936 1.95796947221415 -0.0916874065790155 0 0 0 1 0 1 1 </REAL-Entries>
    </REAL-SparseArray>
   </VectorInstance>
   <VectorInstance id="32">
    <REAL-SparseArray n="11">
     <Indices>1 2 3 4 5 6 7 8 9 10 11 </Indices>
     <REAL-Entries>-0.894049496215515 -0.574744247022924 -0.558327232311067 -0.460803215406591 0 1 0 0 1 0 0 </REAL-Entries>
    </REAL-SparseArray>
   </VectorInstance>
   <VectorInstance id="33">
    <REAL-SparseArray n="11">
     <Indices>1 2 3 4 5 6 7 8 9 10 11 </Indices>
     <REAL-Entries>-0.693361105775507 -0.574744247022924 -0.558327232311067 -0.539734502072606 0 0 0 1 0 1 1 </REAL-Entries>
    </REAL-SparseArray>
   </VectorInstance>
   <VectorInstance id="34">
    <REAL-SparseArray n="11">
     <Indices>1 2 3 4 5 6 7 8 9 10 11 </Indices>
     <REAL-Entries>-0.4926727153355 -0.574744247022924 -0.558327232311067 -0.402814669666964 0 1 0 0 1 0 1 </REAL-Entries>
    </REAL-SparseArray>
   </VectorInstance>
   <VectorInstance id="35">
    <REAL-SparseArray n="11">
     <Indices>1 2 3 4 5 6 7 8 9 10 11 </Indices>
     <REAL-Entries>0.443873106717869 0.458539126040147 -0.558327232311067 0.321693741024788 0 0 0 1 0 0 1 </REAL-Entries>
    </REAL-SparseArray>
   </VectorInstance>
   <VectorInstance id="36">
    <REAL-SparseArray n="11">
     <Indices>1 2 3 4 5 6 7 8 9 10 11 </Indices>
     <REAL-Entries>-1.06128982158219 0.458539126040147 -0.558327232311067 -0.414078056514282 0 1 0 0 0 1 0 </REAL-Entries>
    </REAL-SparseArray>
   </VectorInstance>
   <VectorInstance id="37">
    <REAL-SparseArray n="11">
     <Indices>1 2 3 4 5 6 7 8 9 10 11 </Indices>
     <REAL-Entries>-0.158192064602154 -0.574744247022924 -0.558327232311067 -0.538942485688481 0 0 0 1 0 1 0 </REAL-Entries>
    </REAL-SparseArray>
   </VectorInstance>
   <VectorInstance id="38">
    <REAL-SparseArray n="11">
     <Indices>1 2 3 4 5 6 7 8 9 10 11 </Indices>
     <REAL-Entries>-0.760257235922177 0.458539126040147 -0.558327232311067 -0.194259239979844 0 0 0 1 1 0 0 </REAL-Entries>
    </REAL-SparseArray>
   </VectorInstance>
   <VectorInstance id="39">
    <REAL-SparseArray n="11">
     <Indices>1 2 3 4 5 6 7 8 9 10 11 </Indices>
     <REAL-Entries>-1.76369918812221 -0.574744247022924 1.95796947221415 -0.269938690145653 0 0 0 1 0 1 0 </REAL-Entries>
    </REAL-SparseArray>
   </VectorInstance>
   <VectorInstance id="40">
    <REAL-SparseArray n="11">
     <Indices>1 2 3 4 5 6 7 8 9 10 11 </Indices>
     <REAL-Entries>-0.0912959344554847 0.458539126040147 0.699821119951543 -0.490075455565064 0 0 0 1 0 1 0 </REAL-Entries>
    </REAL-SparseArray>
   </VectorInstance>
   <VectorInstance id="41">
    <REAL-SparseArray n="11">
     <Indices>1 2 3 4 5 6 7 8 9 10 11 </Indices>
     <REAL-Entries>-0.960945626362184 -0.574744247022924 -0.558327232311067 -0.508400353875653 0 0 0 1 0 1 1 </REAL-Entries>
    </REAL-SparseArray>
   </VectorInstance>
   <VectorInstance id="42">
    <REAL-SparseArray n="11">
     <Indices>1 2 3 4 5 6 7 8 9 10 11 </Indices>
     <REAL-Entries>-0.894049496215515 -0.574744247022924 1.95796947221415 1.42182163354453 0 1 0 0 0 0 1 </REAL-Entries>
    </REAL-SparseArray>
   </VectorInstance>
   <VectorInstance id="43">
    <REAL-SparseArray n="11">
     <Indices>1 2 3 4 5 6 7 8 9 10 11 </Indices>
     <REAL-Entries>0.310080846424531 -0.574744247022924 -0.558327232311067 1.89303330438824 0 0 0 1 0 0 0 </REAL-Entries>
    </REAL-SparseArray>
   </VectorInstance>
   <VectorInstance id="44">
    <REAL-SparseArray n="11">
     <Indices>1 2 3 4 5 6 7 8 9 10 11 </Indices>
     <REAL-Entries>-0.894049496215515 -0.574744247022924 -0.558327232311067 -0.413999997207193 0 1 0 0 0 1 0 </REAL-Entries>
    </REAL-SparseArray>
   </VectorInstance>
   <VectorInstance id="45">
    <REAL-SparseArray n="11">
     <Indices>1 2 3 4 5 6 7 8 9 10 11 </Indices>
     <REAL-Entries>-0.760257235922177 -0.574744247022924 -0.558327232311067 -0.539258530687915 0 0 1 0 0 1 0 </REAL-Entries>
    </REAL-SparseArray>
   </VectorInstance>
   <VectorInstance id="46">
    <REAL-SparseArray n="11">
     <Indices>1 2 3 4 5 6 7 8 9 10 11 </Indices>
     <REAL-Entries>-0.225088194748823 0.458539126040147 -0.558327232311067 -0.289453516917968 0 0 0 1 1 0 0 </REAL-Entries>
    </REAL-SparseArray>
   </VectorInstance>
   <VectorInstance id="47">
    <REAL-SparseArray n="11">
     <Indices>1 2 3 4 5 6 7 8 9 10 11 </Indices>
     <REAL-Entries>-0.626464975628838 -0.574744247022924 0.699821119951543 0.782196055712962 0 0 0 1 0 0 1 </REAL-Entries>
    </REAL-SparseArray>
   </VectorInstance>
   <VectorInstance id="48">
    <REAL-SparseArray n="11">
     <Indices>1 2 3 4 5 6 7 8 9 10 11 </Indices>
     <REAL-Entries>-1.09473788665552 0.458539126040147 1.95796947221415 1.59539316645689 0 0 0 1 0 0 0 </REAL-Entries>
    </REAL-SparseArray>
   </VectorInstance>
   <VectorInstance id="49">
    <REAL-SparseArray n="11">
     <Indices>1 2 3 4 5 6 7 8 9 10 11 </Indices>
     <REAL-Entries>0.678009562231211 -0.574744247022924 1.95796947221415 -0.413206076937529 0 0 0 1 0 1 1 </REAL-Entries>
    </REAL-SparseArray>
   </VectorInstance>
   <VectorInstance id="50">
    <REAL-SparseArray n="11">
     <Indices>1 2 3 4 5 6 7 8 9 10 11 </Indices>
     <REAL-Entries>-0.760257235922177 -0.574744247022924 -0.558327232311067 -0.489361498488028 0 0 0 1 1 0 1 </REAL-Entries>
    </REAL-SparseArray>
   </VectorInstance>
   <VectorInstance id="51">
    <REAL-SparseArray n="11">
     <Indices>1 2 3 4 5 6 7 8 9 10 11 </Indices>
     <REAL-Entries>-0.894049496215515 0.458539126040147 0.699821119951543 -0.551633786689872 0 1 0 0 0 1 1 </REAL-Entries>
    </REAL-SparseArray>
   </VectorInstance>
   <VectorInstance id="52">
    <REAL-SparseArray n="11">
     <Indices>1 2 3 4 5 6 7 8 9 10 11 </Indices>
     <REAL-Entries>-0.0243998043088155 -0.574744247022924 -0.558327232311067 -0.508400353875653 0 0 0 1 0 1 1 </REAL-Entries>
    </REAL-SparseArray>
   </VectorInstance>
   <VectorInstance id="53">
    <REAL-SparseArray n="11">
     <Indices>1 2 3 4 5 6 7 8 9 10 11 </Indices>
     <REAL-Entries>0.778353757451215 -0.574744247022924 -0.558327232311067 -0.441764360018966 0 0 0 1 1 0 1 </REAL-Entries>
    </REAL-SparseArray>
   </VectorInstance>
   <VectorInstance id="54">
    <REAL-SparseArray n="11">
     <Indices>1 2 3 4 5 6 7 8 9 10 11 </Indices>
     <REAL-Entries>-0.559568845482169 -0.574744247022924 -0.558327232311067 -0.50197474018233 0 0 0 1 0 1 0 </REAL-Entries>
    </REAL-SparseArray>
   </VectorInstance>
   <VectorInstance id="55">
    <REAL-SparseArray n="11">
     <Indices>1 2 3 4 5 6 7 8 9 10 11 </Indices>
     <REAL-Entries>-0.0912959344554847 -0.574744247022924 -0.558327232311067 -0.541718350803997 0 0 1 0 0 1 1 </REAL-Entries>
    </REAL-SparseArray>
   </VectorInstance>
   <VectorInstance id="56">
    <REAL-SparseArray n="11">
     <Indices>1 2 3 4 5 6 7 8 9 10 11 </Indices>
     <REAL-Entries>1.01249021296456 -0.574744247022924 -0.558327232311067 -0.146662101510782 0 0 0 1 0 0 1 </REAL-Entries>
    </REAL-SparseArray>
   </VectorInstance>
   <VectorInstance id="57">
    <REAL-SparseArray n="11">
     <Indices>1 2 3 4 5 6 7 8 9 10 11 </Indices>
     <REAL-Entries>-0.225088194748823 -0.574744247022924 1.95796947221415 3.33744843442456 0 1 0 0 0 0 1 </REAL-Entries>
    </REAL-SparseArray>
   </VectorInstance>
   <VectorInstance id="58">
    <REAL-SparseArray n="11">
     <Indices>1 2 3 4 5 6 7 8 9 10 11 </Indices>
     <REAL-Entries>-0.0912959344554847 0.458539126040147 -0.558327232311067 0.578718288757722 0 0 0 1 0 0 1 </REAL-Entries>
    </REAL-SparseArray>
   </VectorInstance>
   <VectorInstance id="59">
    <REAL-SparseArray n="11">
     <Indices>1 2 3 4 5 6 7 8 9 10 11 </Indices>
     <REAL-Entries>-0.827153366068846 -0.574744247022924 -0.558327232311067 -0.536006694187709 0 0 0 1 0 1 1 </REAL-Entries>
    </REAL-SparseArray>
   </VectorInstance>
   <VectorInstance id="60">
    <REAL-SparseArray n="11">
     <Indices>1 2 3 4 5 6 7 8 9 10 11 </Indices>
     <REAL-Entries>-0.559568845482169 -0.574744247022924 -0.558327232311067 -0.5517137498825 0 1 0 0 0 1 1 </REAL-Entries>
    </REAL-SparseArray>
   </VectorInstance>
   <VectorInstance id="61">
    <REAL-SparseArray n="11">
     <Indices>1 2 3 4 5 6 7 8 9 10 11 </Indices>
     <REAL-Entries>1.44731505891791 -0.574744247022924 -0.558327232311067 -0.108584390735532 0 0 0 1 0 0 1 </REAL-Entries>
    </REAL-SparseArray>
   </VectorInstance>
   <VectorInstance id="62">
    <REAL-SparseArray n="11">
     <Indices>1 2 3 4 5 6 7 8 9 10 11 </Indices>
     <REAL-Entries>1.38041892877124 -0.574744247022924 0.699821119951543 0.479320232550011 0 1 0 0 0 0 1 </REAL-Entries>
    </REAL-SparseArray>
   </VectorInstance>
   <VectorInstance id="63">
    <REAL-SparseArray n="11">
     <Indices>1 2 3 4 5 6 7 8 9 10 11 </Indices>
     <REAL-Entries>1.84869183979792 -0.574744247022924 0.699821119951543 2.23248086486528 0 0 0 1 0 0 0 </REAL-Entries>
    </REAL-SparseArray>
   </VectorInstance>
   <VectorInstance id="64">
    <REAL-SparseArray n="11">
     <Indices>1 2 3 4 5 6 7 8 9 10 11 </Indices>
     <REAL-Entries>0.310080846424531 -0.574744247022924 -0.558327232311067 -0.555045549575334 0 0 0 1 0 1 1 </REAL-Entries>
    </REAL-SparseArray>
   </VectorInstance>
   <VectorInstance id="65">
    <REAL-SparseArray n="11">
     <Indices>1 2 3 4 5 6 7 8 9 10 11 </Indices>
     <REAL-Entries>0.979042147891223 0.458539126040147 0.699821119951543 -0.189499526132938 0 0 0 1 1 0 0 </REAL-Entries>
    </REAL-SparseArray>
   </VectorInstance>
   <VectorInstance id="66">
    <REAL-SparseArray n="11">
     <Indices>1 2 3 4 5 6 7 8 9 10 11 </Indices>
     <REAL-Entries>1.31352279862457 -0.574744247022924 -0.558327232311067 -0.489361498488028 0 0 0 1 1 0 0 </REAL-Entries>
    </REAL-SparseArray>
   </VectorInstance>
   <VectorInstance id="67">
    <REAL-SparseArray n="11">
     <Indices>1 2 3 4 5 6 7 8 9 10 11 </Indices>
     <REAL-Entries>0.443873106717869 0.458539126040147 0.699821119951543 0.311302333754222 0 0 0 1 0 0 1 </REAL-Entries>
    </REAL-SparseArray>
   </VectorInstance>
   <VectorInstance id="68">
    <REAL-SparseArray n="11">
     <Indices>1 2 3 4 5 6 7 8 9 10 11 </Indices>
     <REAL-Entries>0.711457627304546 -0.574744247022924 1.95796947221415 -0.304446615535723 0 0 0 1 0 1 0 </REAL-Entries>
    </REAL-SparseArray>
   </VectorInstance>
   <VectorInstance id="69">
    <REAL-SparseArray n="11">
     <Indices>1 2 3 4 5 6 7 8 9 10 11 </Indices>
     <REAL-Entries>-0.291984324895492 0.458539126040147 0.699821119951543 -0.194259239979844 0 0 0 1 1 0 0 </REAL-Entries>
    </REAL-SparseArray>
   </VectorInstance>
   <VectorInstance id="70">
    <REAL-SparseArray n="11">
     <Indices>1 2 3 4 5 6 7 8 9 10 11 </Indices>
     <REAL-Entries>0.176288586131192 0.458539126040147 -0.558327232311067 1.02422750482814 0 0 1 0 0 0 0 </REAL-Entries>
    </REAL-SparseArray>
   </VectorInstance>
   <VectorInstance id="71">
    <REAL-SparseArray n="11">
     <Indices>1 2 3 4 5 6 7 8 9 10 11 </Indices>
     <REAL-Entries>-0.425776585188831 -0.574744247022924 -0.558327232311067 0.89396936792263 0 1 0 0 0 0 0 </REAL-Entries>
    </REAL-SparseArray>
   </VectorInstance>
   <VectorInstance id="72">
    <REAL-SparseArray n="11">
     <Indices>1 2 3 4 5 6 7 8 9 10 11 </Indices>
     <REAL-Entries>-0.827153366068846 -0.574744247022924 -0.558327232311067 0.710086390932334 0 0 0 1 1 0 1 </REAL-Entries>
    </REAL-SparseArray>
   </VectorInstance>
   <VectorInstance id="73">
    <REAL-SparseArray n="11">
     <Indices>1 2 3 4 5 6 7 8 9 10 11 </Indices>
     <REAL-Entries>1.31352279862457 0.458539126040147 -0.558327232311067 0.375002536110137 0 0 0 1 0 0 1 </REAL-Entries>
    </REAL-SparseArray>
   </VectorInstance>
   <VectorInstance id="74">
    <REAL-SparseArray n="11">
     <Indices>1 2 3 4 5 6 7 8 9 10 11 </Indices>
     <REAL-Entries>-0.960945626362184 3.55838924522936 0.699821119951543 0.0663350931382703 0 0 0 1 0 1 1 </REAL-Entries>
    </REAL-SparseArray>
   </VectorInstance>
   <VectorInstance id="75">
    <REAL-SparseArray n="11">
     <Indices>1 2 3 4 5 6 7 8 9 10 11 </Indices>
     <REAL-Entries>-0.425776585188831 -0.574744247022924 1.95796947221415 -0.371320595084755 0 0 0 1 0 1 0 </REAL-Entries>
    </REAL-SparseArray>
   </VectorInstance>
   <VectorInstance id="76">
    <REAL-SparseArray n="11">
     <Indices>1 2 3 4 5 6 7 8 9 10 11 </Indices>
     <REAL-Entries>0.3769769765712 0.458539126040147 1.95796947221415 -0.160941243051501 0 0 0 1 1 0 1 </REAL-Entries>
    </REAL-SparseArray>
   </VectorInstance>
   <VectorInstance id="77">
    <REAL-SparseArray n="11">
     <Indices>1 2 3 4 5 6 7 8 9 10 11 </Indices>
     <REAL-Entries>-0.158192064602154 0.458539126040147 -0.558327232311067 0.875168498227351 0 1 0 0 0 0 1 </REAL-Entries>
    </REAL-SparseArray>
   </VectorInstance>
   <VectorInstance id="78">
    <REAL-SparseArray n="11">
     <Indices>1 2 3 4 5 6 7 8 9 10 11 </Indices>
     <REAL-Entries>-0.760257235922177 -0.574744247022924 -0.558327232311067 -0.441764360018966 0 0 0 1 1 0 1 </REAL-Entries>
    </REAL-SparseArray>
   </VectorInstance>
   <VectorInstance id="79">
    <REAL-SparseArray n="11">
     <Indices>1 2 3 4 5 6 7 8 9 10 11 </Indices>
     <REAL-Entries>0.0424963258378537 -0.574744247022924 1.95796947221415 2.44960377947683 0 0 0 1 0 0 0 </REAL-Entries>
    </REAL-SparseArray>
   </VectorInstance>
   <VectorInstance id="80">
    <REAL-SparseArray n="11">
     <Indices>1 2 3 4 5 6 7 8 9 10 11 </Indices>
     <REAL-Entries>-0.626464975628838 -0.574744247022924 -0.558327232311067 0.710086390932334 0 0 0 1 1 0 1 </REAL-Entries>
    </REAL-SparseArray>
   </VectorInstance>
   <VectorInstance id="81">
    <REAL-SparseArray n="11">
     <Indices>1 2 3 4 5 6 7 8 9 10 11 </Indices>
     <REAL-Entries>-1.89749144841555 3.55838924522936 1.95796947221415 -0.0938292778101233 0 0 0 1 0 1 0 </REAL-Entries>
    </REAL-SparseArray>
   </VectorInstance>
   <VectorInstance id="82">
    <REAL-SparseArray n="11">
     <Indices>1 2 3 4 5 6 7 8 9 10 11 </Indices>
     <REAL-Entries>-1.76369918812221 2.52510587216629 1.95796947221415 -0.158085414743357 0 0 0 1 0 1 1 </REAL-Entries>
    </REAL-SparseArray>
   </VectorInstance>
   <VectorInstance id="83">
    <REAL-SparseArray n="11">
     <Indices>1 2 3 4 5 6 7 8 9 10 11 </Indices>
     <REAL-Entries>1.17973053833123 -0.574744247022924 -0.558327232311067 -0.441764360018966 0 0 0 1 1 0 1 </REAL-Entries>
    </REAL-SparseArray>
   </VectorInstance>
   <VectorInstance id="84">
    <REAL-SparseArray n="11">
     <Indices>1 2 3 4 5 6 7 8 9 10 11 </Indices>
     <REAL-Entries>-0.693361105775507 -0.574744247022924 -0.558327232311067 -0.555045549575334 0 0 0 1 0 1 1 </REAL-Entries>
    </REAL-SparseArray>
   </VectorInstance>
   <VectorInstance id="85">
    <REAL-SparseArray n="11">
     <Indices>1 2 3 4 5 6 7 8 9 10 11 </Indices>
     <REAL-Entries>-0.827153366068846 1.49182249910322 1.95796947221415 4.30605020226997 0 1 0 0 0 0 0 </REAL-Entries>
    </REAL-SparseArray>
   </VectorInstance>
   <VectorInstance id="86">
    <REAL-SparseArray n="11">
     <Indices>1 2 3 4 5 6 7 8 9 10 11 </Indices>
     <REAL-Entries>-0.425776585188831 1.49182249910322 3.21611782447676 -0.332290941540124 0 0 0 1 1 0 0 </REAL-Entries>
    </REAL-SparseArray>
   </VectorInstance>
   <VectorInstance id="87">
    <REAL-SparseArray n="11">
     <Indices>1 2 3 4 5 6 7 8 9 10 11 </Indices>
     <REAL-Entries>1.51421118906458 1.49182249910322 -0.558327232311067 0.290835564212526 0 0 0 1 0 0 0 </REAL-Entries>
    </REAL-SparseArray>
   </VectorInstance>
   <VectorInstance id="88">
    <REAL-SparseArray n="11">
     <Indices>1 2 3 4 5 6 7 8 9 10 11 </Indices>
     <REAL-Entries>-0.0243998043088155 0.458539126040147 -0.558327232311067 -0.232336950755094 0 1 0 0 1 0 1 </REAL-Entries>
    </REAL-SparseArray>
   </VectorInstance>
   <VectorInstance id="89">
    <REAL-SparseArray n="11">
     <Indices>1 2 3 4 5 6 7 8 9 10 11 </Indices>
     <REAL-Entries>-1.97575992068716 -0.574744247022924 1.95796947221415 -0.13714267381697 0 0 0 1 1 0 1 </REAL-Entries>
    </REAL-SparseArray>
   </VectorInstance>
   <VectorInstance id="90">
    <REAL-SparseArray n="11">
     <Indices>1 2 3 4 5 6 7 8 9 10 11 </Indices>
     <REAL-Entries>-1.76369918812221 0.458539126040147 0.699821119951543 -0.371320595084755 0 0 0 1 0 1 0 </REAL-Entries>
    </REAL-SparseArray>
   </VectorInstance>
   <VectorInstance id="91">
    <REAL-SparseArray n="11">
     <Indices>1 2 3 4 5 6 7 8 9 10 11 </Indices>
     <REAL-Entries>0.644561497157877 -0.574744247022924 -0.558327232311067 -0.689269480058089 0 0 0 1 0 0 1 </REAL-Entries>
    </REAL-SparseArray>
   </VectorInstance>
   <VectorInstance id="92">
    <REAL-SparseArray n="11">
     <Indices>1 2 3 4 5 6 7 8 9 10 11 </Indices>
     <REAL-Entries>0.979042147891223 -0.574744247022924 0.699821119951543 -0.414078056514282 0 1 0 0 0 1 0 </REAL-Entries>
    </REAL-SparseArray>
   </VectorInstance>
   <VectorInstance id="93">
    <REAL-SparseArray n="11">
     <Indices>1 2 3 4 5 6 7 8 9 10 11 </Indices>
     <REAL-Entries>-0.0243998043088155 -0.574744247022924 -0.558327232311067 -0.451759759097469 0 0 0 1 0 1 0 </REAL-Entries>
    </REAL-SparseArray>
   </VectorInstance>
   <VectorInstance id="94">
    <REAL-SparseArray n="11">
     <Indices>1 2 3 4 5 6 7 8 9 10 11 </Indices>
     <REAL-Entries>-0.960945626362184 4.59167261829243 1.95796947221415 0.203652837621514 0 0 0 1 0 1 0 </REAL-Entries>
    </REAL-SparseArray>
   </VectorInstance>
   <VectorInstance id="95">
    <REAL-SparseArray n="11">
     <Indices>1 2 3 4 5 6 7 8 9 10 11 </Indices>
     <REAL-Entries>-0.960945626362184 -0.574744247022924 -0.558327232311067 0.957591510971456 0 0 0 1 0 0 0 </REAL-Entries>
    </REAL-SparseArray>
   </VectorInstance>
   <VectorInstance id="96">
    <REAL-SparseArray n="11">
     <Indices>1 2 3 4 5 6 7 8 9 10 11 </Indices>
     <REAL-Entries>-0.827153366068846 0.458539126040147 -0.558327232311067 -0.350377854158367 0 0 0 1 0 1 0 </REAL-Entries>
    </REAL-SparseArray>
   </VectorInstance>
   <VectorInstance id="97">
    <REAL-SparseArray n="11">
     <Indices>1 2 3 4 5 6 7 8 9 10 11 </Indices>
     <REAL-Entries>-0.626464975628838 -0.574744247022924 -0.558327232311067 -0.541718350803997 0 0 1 0 0 1 0 </REAL-Entries>
    </REAL-SparseArray>
   </VectorInstance>
   <VectorInstance id="98">
    <REAL-SparseArray n="11">
     <Indices>1 2 3 4 5 6 7 8 9 10 11 </Indices>
     <REAL-Entries>-1.69680305797555 1.49182249910322 0.699821119951543 -0.322613491346594 0 1 0 0 0 1 0 </REAL-Entries>
    </REAL-SparseArray>
   </VectorInstance>
   <VectorInstance id="99">
    <REAL-SparseArray n="11">
     <Indices>1 2 3 4 5 6 7 8 9 10 11 </Indices>
     <REAL-Entries>-0.626464975628838 1.49182249910322 1.95796947221415 -0.0348088261084864 0 0 0 1 0 1 0 </REAL-Entries>
    </REAL-SparseArray>
   </VectorInstance>
   <VectorInstance id="100">
    <REAL-SparseArray n="11">
     <Indices>1 2 3 4 5 6 7 8 9 10 11 </Indices>
     <REAL-Entries>-0.960945626362184 -0.574744247022924 -0.558327232311067 -0.54203629968897 0 0 1 0 0 1 0 </REAL-Entries>
    </REAL-SparseArray>
   </VectorInstance>
   <VectorInstance id="101">
    <REAL-SparseArray n="11">
     <Indices>1 2 3 4 5 6 7 8 9 10 11 </Indices>
     <REAL-Entries>2.31696475082461 -0.574744247022924 0.699821119951543 0.490743545782586 0 1 0 0 0 0 1 </REAL-Entries>
    </REAL-SparseArray>
   </VectorInstance>
   <VectorInstance id="102">
    <REAL-SparseArray n="11">
     <Indices>1 2 3 4 5 6 7 8 9 10 11 </Indices>
     <REAL-Entries>-1.96973926897396 0.458539126040147 1.95796947221415 2.19606905393645 0 0 0 1 0 0 1 </REAL-Entries>
    </REAL-SparseArray>
   </VectorInstance>
   <VectorInstance id="103">
    <REAL-SparseArray n="11">
     <Indices>1 2 3 4 5 6 7 8 9 10 11 </Indices>
     <REAL-Entries>1.11283440818456 -0.574744247022924 -0.558327232311067 0.0437264523654659 0 0 0 1 0 0 1 </REAL-Entries>
    </REAL-SparseArray>
   </VectorInstance>
   <VectorInstance id="104">
    <REAL-SparseArray n="11">
     <Indices>1 2 3 4 5 6 7 8 9 10 11 </Indices>
     <REAL-Entries>0.310080846424531 0.458539126040147 0.699821119951543 -0.303732658458687 0 0 0 1 0 1 0 </REAL-Entries>
    </REAL-SparseArray>
   </VectorInstance>
   <VectorInstance id="105">
    <REAL-SparseArray n="11">
     <Indices>1 2 3 4 5 6 7 8 9 10 11 </Indices>
     <REAL-Entries>0.510769236864538 -0.574744247022924 0.699821119951543 2.23248086486528 0 0 0 1 0 0 1 </REAL-Entries>
    </REAL-SparseArray>
   </VectorInstance>
   <VectorInstance id="106">
    <REAL-SparseArray n="11">
     <Indices>1 2 3 4 5 6 7 8 9 10 11 </Indices>
     <REAL-Entries>2.68489346663129 -0.574744247022924 -0.558327232311067 -0.541718350803997 0 0 1 0 0 1 1 </REAL-Entries>
    </REAL-SparseArray>
   </VectorInstance>
   <VectorInstance id="107">
    <REAL-SparseArray n="11">
     <Indices>1 2 3 4 5 6 7 8 9 10 11 </Indices>
     <REAL-Entries>2.71834153170462 -0.574744247022924 -0.558327232311067 -0.0294931776842615 0 1 0 0 0 0 1 </REAL-Entries>
    </REAL-SparseArray>
   </VectorInstance>
   <VectorInstance id="108">
    <REAL-SparseArray n="11">
     <Indices>1 2 3 4 5 6 7 8 9 10 11 </Indices>
     <REAL-Entries>0.3769769765712 -0.574744247022924 -0.558327232311067 -0.489361498488028 0 0 0 1 1 0 1 </REAL-Entries>
    </REAL-SparseArray>
   </VectorInstance>
   <VectorInstance id="109">
    <REAL-SparseArray n="11">
     <Indices>1 2 3 4 5 6 7 8 9 10 11 </Indices>
     <REAL-Entries>-1.3623224072422 -0.574744247022924 1.95796947221415 -0.22948112244695 0 0 0 1 0 1 0 </REAL-Entries>
    </REAL-SparseArray>
   </VectorInstance>
   <VectorInstance id="110">
    <REAL-SparseArray n="11">
     <Indices>1 2 3 4 5 6 7 8 9 10 11 </Indices>
     <REAL-Entries>2.31696475082461 -0.574744247022924 -0.558327232311067 -0.541718350803997 0 0 1 0 0 1 1 </REAL-Entries>
    </REAL-SparseArray>
   </VectorInstance>
   <VectorInstance id="111">
    <REAL-SparseArray n="11">
     <Indices>1 2 3 4 5 6 7 8 9 10 11 </Indices>
     <REAL-Entries>0.243184716277861 0.458539126040147 0.699821119951543 -0.0705066799602829 0 0 0 1 1 0 0 </REAL-Entries>
    </REAL-SparseArray>
   </VectorInstance>
   <VectorInstance id="112">
    <REAL-SparseArray n="11">
     <Indices>1 2 3 4 5 6 7 8 9 10 11 </Indices>
     <REAL-Entries>0.443873106717869 1.49182249910322 -0.558327232311067 -0.538386551111162 0 0 0 1 0 1 1 </REAL-Entries>
    </REAL-SparseArray>
   </VectorInstance>
   <VectorInstance id="113">
    <REAL-SparseArray n="11">
     <Indices>1 2 3 4 5 6 7 8 9 10 11 </Indices>
     <REAL-Entries>-0.358880455042161 0.458539126040147 -0.558327232311067 1.04477423756247 0 1 0 0 0 0 1 </REAL-Entries>
    </REAL-SparseArray>
   </VectorInstance>
   <VectorInstance id="114">
    <REAL-SparseArray n="11">
     <Indices>1 2 3 4 5 6 7 8 9 10 11 </Indices>
     <REAL-Entries>-0.693361105775507 -0.574744247022924 -0.558327232311067 -0.612876072815244 0 1 0 0 0 1 1 </REAL-Entries>
    </REAL-SparseArray>
   </VectorInstance>
   <VectorInstance id="115">
    <REAL-SparseArray n="11">
     <Indices>1 2 3 4 5 6 7 8 9 10 11 </Indices>
     <REAL-Entries>-0.425776585188831 -0.574744247022924 -0.558327232311067 -0.441764360018966 0 0 0 1 1 0 0 </REAL-Entries>
    </REAL-SparseArray>
   </VectorInstance>
   <VectorInstance id="116">
    <REAL-SparseArray n="11">
     <Indices>1 2 3 4 5 6 7 8 9 10 11 </Indices>
     <REAL-Entries>-0.158192064602154 -0.574744247022924 -0.558327232311067 -0.0133901137974085 0 0 0 1 0 0 1 </REAL-Entries>
    </REAL-SparseArray>
   </VectorInstance>
   <VectorInstance id="117">
    <REAL-SparseArray n="11">
     <Indices>1 2 3 4 5 6 7 8 9 10 11 </Indices>
     <REAL-Entries>1.64800344935791 -0.574744247022924 -0.558327232311067 -0.384647793856092 0 0 0 1 1 0 0 </REAL-Entries>
    </REAL-SparseArray>
   </VectorInstance>
   <VectorInstance id="118">
    <REAL-SparseArray n="11">
     <Indices>1 2 3 4 5 6 7 8 9 10 11 </Indices>
     <REAL-Entries>-1.96438757856222 1.49182249910322 0.699821119951543 0.0532458800592783 0 0 0 1 1 0 1 </REAL-Entries>
    </REAL-SparseArray>
   </VectorInstance>
   <VectorInstance id="119">
    <REAL-SparseArray n="11">
     <Indices>1 2 3 4 5 6 7 8 9 10 11 </Indices>
     <REAL-Entries>-1.09473788665552 0.458539126040147 -0.558327232311067 -0.475240379447027 0 1 0 0 0 1 0 </REAL-Entries>
    </REAL-SparseArray>
   </VectorInstance>
   <VectorInstance id="120">
    <REAL-SparseArray n="11">
     <Indices>1 2 3 4 5 6 7 8 9 10 11 </Indices>
     <REAL-Entries>1.31352279862457 0.458539126040147 -0.558327232311067 1.33694070456988 0 1 0 0 0 0 1 </REAL-Entries>
    </REAL-SparseArray>
   </VectorInstance>
   <VectorInstance id="121">
    <REAL-SparseArray n="11">
     <Indices>1 2 3 4 5 6 7 8 9 10 11 </Indices>
     <REAL-Entries>1.17973053833123 0.458539126040147 -0.558327232311067 0.0646691932918532 0 1 0 0 0 0 0 </REAL-Entries>
    </REAL-SparseArray>
   </VectorInstance>
   <VectorInstance id="122">
    <REAL-SparseArray n="11">
     <Indices>1 2 3 4 5 6 7 8 9 10 11 </Indices>
     <REAL-Entries>-0.693361105775507 -0.574744247022924 -0.558327232311067 -0.524345395262789 0 0 0 1 0 1 0 </REAL-Entries>
    </REAL-SparseArray>
   </VectorInstance>
   <VectorInstance id="123">
    <REAL-SparseArray n="11">
     <Indices>1 2 3 4 5 6 7 8 9 10 11 </Indices>
     <REAL-Entries>0.310080846424531 -0.574744247022924 -0.558327232311067 -0.553617635421262 0 0 0 1 0 1 1 </REAL-Entries>
    </REAL-SparseArray>
   </VectorInstance>
   <VectorInstance id="124">
    <REAL-SparseArray n="11">
     <Indices>1 2 3 4 5 6 7 8 9 10 11 </Indices>
     <REAL-Entries>-0.960945626362184 -0.574744247022924 -0.558327232311067 -0.536006694187709 0 0 0 1 0 1 1 </REAL-Entries>
    </REAL-SparseArray>
   </VectorInstance>
   <VectorInstance id="125">
    <REAL-SparseArray n="11">
     <Indices>1 2 3 4 5 6 7 8 9 10 11 </Indices>
     <REAL-Entries>-1.42921853738887 1.49182249910322 1.95796947221415 -0.0348088261084864 0 0 0 1 0 1 0 </REAL-Entries>
    </REAL-SparseArray>
   </VectorInstance>
   <VectorInstance id="126">
    <REAL-SparseArray n="11">
     <Indices>1 2 3 4 5 6 7 8 9 10 11 </Indices>
     <REAL-Entries>0.3769769765712 0.458539126040147 1.95796947221415 1.59539316645689 0 0 0 1 0 0 1 </REAL-Entries>
    </REAL-SparseArray>
   </VectorInstance>
   <VectorInstance id="127">
    <REAL-SparseArray n="11">
     <Indices>1 2 3 4 5 6 7 8 9 10 11 </Indices>
     <REAL-Entries>-0.225088194748823 -0.574744247022924 -0.558327232311067 -0.540846371227243 0 0 0 1 0 1 1 </REAL-Entries>
    </REAL-SparseArray>
   </VectorInstance>
   <VectorInstance id="128">
    <REAL-SparseArray n="11">
     <Indices>1 2 3 4 5 6 7 8 9 10 11 </Indices>
     <REAL-Entries>-0.960945626362184 0.458539126040147 3.21611782447676 -0.0348088261084864 0 0 0 1 0 1 1 </REAL-Entries>
    </REAL-SparseArray>
   </VectorInstance>
   <VectorInstance id="129">
    <REAL-SparseArray n="11">
     <Indices>1 2 3 4 5 6 7 8 9 10 11 </Indices>
     <REAL-Entries>-0.827153366068846 0.458539126040147 0.699821119951543 -0.539734502072606 0 0 0 1 0 1 1 </REAL-Entries>
    </REAL-SparseArray>
   </VectorInstance>
   <VectorInstance id="130">
    <REAL-SparseArray n="11">
     <Indices>1 2 3 4 5 6 7 8 9 10 11 </Indices>
     <REAL-Entries>-1.89749144841555 3.55838924522936 0.699821119951543 -0.134762816893517 0 0 1 0 0 1 1 </REAL-Entries>
    </REAL-SparseArray>
   </VectorInstance>
   <VectorInstance id="131">
    <REAL-SparseArray n="11">
     <Indices>1 2 3 4 5 6 7 8 9 10 11 </Indices>
     <REAL-Entries>-0.827153366068846 -0.574744247022924 -0.558327232311067 -0.470322643100404 0 0 0 1 1 0 1 </REAL-Entries>
    </REAL-SparseArray>
   </VectorInstance>
   <VectorInstance id="132">
    <REAL-SparseArray n="11">
     <Indices>1 2 3 4 5 6 7 8 9 10 11 </Indices>
     <REAL-Entries>-0.425776585188831 2.52510587216629 1.95796947221415 4.31794948688723 0 0 0 1 0 0 0 </REAL-Entries>
    </REAL-SparseArray>
   </VectorInstance>
   <VectorInstance id="133">
    <REAL-SparseArray n="11">
     <Indices>1 2 3 4 5 6 7 8 9 10 11 </Indices>
     <REAL-Entries>-1.96438757856222 0.458539126040147 0.699821119951543 -0.477304191371046 0 0 0 1 0 1 0 </REAL-Entries>
    </REAL-SparseArray>
   </VectorInstance>
   <VectorInstance id="134">
    <REAL-SparseArray n="11">
     <Indices>1 2 3 4 5 6 7 8 9 10 11 </Indices>
     <REAL-Entries>2.25006862067794 0.458539126040147 4.47426617673937 4.31794948688723 0 0 0 1 0 0 1 </REAL-Entries>
    </REAL-SparseArray>
   </VectorInstance>
   <VectorInstance id="135">
    <REAL-SparseArray n="11">
     <Indices>1 2 3 4 5 6 7 8 9 10 11 </Indices>
     <REAL-Entries>-0.559568845482169 0.458539126040147 -0.558327232311067 0.578718288757722 0 0 0 1 0 0 0 </REAL-Entries>
    </REAL-SparseArray>
   </VectorInstance>
   <VectorInstance id="136">
    <REAL-SparseArray n="11">
     <Indices>1 2 3 4 5 6 7 8 9 10 11 </Indices>
     <REAL-Entries>-0.158192064602154 -0.574744247022924 -0.558327232311067 0.386345886150084 0 0 0 1 0 1 1 </REAL-Entries>
    </REAL-SparseArray>
   </VectorInstance>
   <VectorInstance id="137">
    <REAL-SparseArray n="11">
     <Indices>1 2 3 4 5 6 7 8 9 10 11 </Indices>
     <REAL-Entries>1.58110731921125 0.458539126040147 -0.558327232311067 -0.194259239979844 0 0 0 1 1 0 1 </REAL-Entries>
    </REAL-SparseArray>
   </VectorInstance>
   <VectorInstance id="138">
    <REAL-SparseArray n="11">
     <Indices>1 2 3 4 5 6 7 8 9 10 11 </Indices>
     <REAL-Entries>-0.4926727153355 -0.574744247022924 0.699821119951543 0.517000031247659 0 1 0 0 0 0 1 </REAL-Entries>
    </REAL-SparseArray>
   </VectorInstance>
   <VectorInstance id="139">
    <REAL-SparseArray n="11">
     <Indices>1 2 3 4 5 6 7 8 9 10 11 </Indices>
     <REAL-Entries>-0.559568845482169 -0.574744247022924 -0.558327232311067 -0.551633786689872 0 1 0 0 0 1 1 </REAL-Entries>
    </REAL-SparseArray>
   </VectorInstance>
   <VectorInstance id="140">
    <REAL-SparseArray n="11">
     <Indices>1 2 3 4 5 6 7 8 9 10 11 </Indices>
     <REAL-Entries>0.310080846424531 -0.574744247022924 -0.558327232311067 -0.536006694187709 0 0 0 1 0 1 1 </REAL-Entries>
    </REAL-SparseArray>
   </VectorInstance>
   <VectorInstance id="141">
    <REAL-SparseArray n="11">
     <Indices>1 2 3 4 5 6 7 8 9 10 11 </Indices>
     <REAL-Entries>-1.98111161109889 1.49182249910322 0.699821119951543 -0.322613491346594 0 1 0 0 0 1 0 </REAL-Entries>
    </REAL-SparseArray>
   </VectorInstance>
   <VectorInstance id="142">
    <REAL-SparseArray n="11">
     <Indices>1 2 3 4 5 6 7 8 9 10 11 </Indices>
     <REAL-Entries>0.510769236864538 -0.574744247022924 -0.558327232311067 -0.555045549575334 0 0 0 1 0 1 1 </REAL-Entries>
    </REAL-SparseArray>
   </VectorInstance>
   <VectorInstance id="143">
    <REAL-SparseArray n="11">
     <Indices>1 2 3 4 5 6 7 8 9 10 11 </Indices>
     <REAL-Entries>-0.425776585188831 -0.574744247022924 -0.558327232311067 0.818607866641795 0 1 0 0 0 0 1 </REAL-Entries>
    </REAL-SparseArray>
   </VectorInstance>
   <VectorInstance id="144">
    <REAL-SparseArray n="11">
     <Indices>1 2 3 4 5 6 7 8 9 10 11 </Indices>
     <REAL-Entries>0.310080846424531 -0.574744247022924 -0.558327232311067 9.06489206959941 0 1 0 0 0 0 0 </REAL-Entries>
    </REAL-SparseArray>
   </VectorInstance>
   <VectorInstance id="145">
    <REAL-SparseArray n="11">
     <Indices>1 2 3 4 5 6 7 8 9 10 11 </Indices>
     <REAL-Entries>1.91558796994459 -0.574744247022924 -0.558327232311067 -0.551237778497809 0 0 0 1 0 1 1 </REAL-Entries>
    </REAL-SparseArray>
   </VectorInstance>
   <VectorInstance id="146">
    <REAL-SparseArray n="11">
     <Indices>1 2 3 4 5 6 7 8 9 10 11 </Indices>
     <REAL-Entries>-0.626464975628838 -0.574744247022924 -0.558327232311067 -0.489361498488028 0 0 0 1 1 0 0 </REAL-Entries>
    </REAL-SparseArray>
   </VectorInstance>
   <VectorInstance id="147">
    <REAL-SparseArray n="11">
     <Indices>1 2 3 4 5 6 7 8 9 10 11 </Indices>
     <REAL-Entries>1.98248410009126 0.458539126040147 0.699821119951543 0.818607866641795 0 1 0 0 0 0 1 </REAL-Entries>
    </REAL-SparseArray>
   </VectorInstance>
   <VectorInstance id="148">
    <REAL-SparseArray n="11">
     <Indices>1 2 3 4 5 6 7 8 9 10 11 </Indices>
     <REAL-Entries>0.109392455984523 0.458539126040147 -0.558327232311067 -0.194259239979844 0 0 0 1 1 0 1 </REAL-Entries>
    </REAL-SparseArray>
   </VectorInstance>
   <VectorInstance id="149">
    <REAL-SparseArray n="11">
     <Indices>1 2 3 4 5 6 7 8 9 10 11 </Indices>
     <REAL-Entries>-0.425776585188831 -0.574744247022924 -0.558327232311067 -0.520775609877609 0 0 0 1 0 1 0 </REAL-Entries>
    </REAL-SparseArray>
   </VectorInstance>
   <VectorInstance id="150">
    <REAL-SparseArray n="11">
     <Indices>1 2 3 4 5 6 7 8 9 10 11 </Indices>
     <REAL-Entries>0.0424963258378537 0.458539126040147 -0.558327232311067 1.46735686397511 0 1 0 0 0 0 0 </REAL-Entries>
    </REAL-SparseArray>
   </VectorInstance>
   <VectorInstance id="151">
    <REAL-SparseArray n="11">
     <Indices>1 2 3 4 5 6 7 8 9 10 11 </Indices>
     <REAL-Entries>-0.760257235922177 2.52510587216629 1.95796947221415 4.31794948688723 0 0 0 1 0 0 1 </REAL-Entries>
    </REAL-SparseArray>
   </VectorInstance>
   <VectorInstance id="152">
    <REAL-SparseArray n="11">
     <Indices>1 2 3 4 5 6 7 8 9 10 11 </Indices>
     <REAL-Entries>2.18317249053127 -0.574744247022924 -0.558327232311067 -0.506734454029236 0 0 0 1 0 1 0 </REAL-Entries>
    </REAL-SparseArray>
   </VectorInstance>
   <VectorInstance id="153">
    <REAL-SparseArray n="11">
     <Indices>1 2 3 4 5 6 7 8 9 10 11 </Indices>
     <REAL-Entries>1.38041892877124 -0.574744247022924 -0.558327232311067 -0.450807816328088 0 0 0 1 1 0 1 </REAL-Entries>
    </REAL-SparseArray>
   </VectorInstance>
   <VectorInstance id="154">
    <REAL-SparseArray n="11">
     <Indices>1 2 3 4 5 6 7 8 9 10 11 </Indices>
     <REAL-Entries>-0.894049496215515 -0.574744247022924 -0.558327232311067 -0.524345395262789 0 0 0 1 0 1 1 </REAL-Entries>
    </REAL-SparseArray>
   </VectorInstance>
   <VectorInstance id="155">
    <REAL-SparseArray n="11">
     <Indices>1 2 3 4 5 6 7 8 9 10 11 </Indices>
     <REAL-Entries>0.3769769765712 -0.574744247022924 -0.558327232311067 -0.538942485688481 0 0 0 1 0 1 1 </REAL-Entries>
    </REAL-SparseArray>
   </VectorInstance>
   <VectorInstance id="156">
    <REAL-SparseArray n="11">
     <Indices>1 2 3 4 5 6 7 8 9 10 11 </Indices>
     <REAL-Entries>2.38386088097128 -0.574744247022924 -0.558327232311067 -0.489361498488028 0 0 0 1 1 0 1 </REAL-Entries>
    </REAL-SparseArray>
   </VectorInstance>
   <VectorInstance id="157">
    <REAL-SparseArray n="11">
     <Indices>1 2 3 4 5 6 7 8 9 10 11 </Indices>
     <REAL-Entries>0.176288586131192 2.52510587216629 -0.558327232311067 -0.387503622164236 0 0 0 1 0 1 0 </REAL-Entries>
    </REAL-SparseArray>
   </VectorInstance>
   <VectorInstance id="158">
    <REAL-SparseArray n="11">
     <Indices>1 2 3 4 5 6 7 8 9 10 11 </Indices>
     <REAL-Entries>0.109392455984523 -0.574744247022924 -0.558327232311067 -0.538386551111162 0 0 0 1 0 1 1 </REAL-Entries>
    </REAL-SparseArray>
   </VectorInstance>
   <VectorInstance id="159">
    <REAL-SparseArray n="11">
     <Indices>1 2 3 4 5 6 7 8 9 10 11 </Indices>
     <REAL-Entries>-0.158192064602154 0.458539126040147 0.699821119951543 -0.415109962476292 0 0 0 1 0 1 0 </REAL-Entries>
    </REAL-SparseArray>
   </VectorInstance>
   <VectorInstance id="160">
    <REAL-SparseArray n="11">
     <Indices>1 2 3 4 5 6 7 8 9 10 11 </Indices>
     <REAL-Entries>-1.83059531826888 0.458539126040147 0.699821119951543 -0.332290941540124 0 0 0 1 1 0 1 </REAL-Entries>
    </REAL-SparseArray>
   </VectorInstance>
   <VectorInstance id="161">
    <REAL-SparseArray n="11">
     <Indices>1 2 3 4 5 6 7 8 9 10 11 </Indices>
     <REAL-Entries>1.98248410009126 0.458539126040147 -0.558327232311067 0.743404387860677 0 1 0 0 0 0 0 </REAL-Entries>
    </REAL-SparseArray>
   </VectorInstance>
   <VectorInstance id="162">
    <REAL-SparseArray n="11">
     <Indices>1 2 3 4 5 6 7 8 9 10 11 </Indices>
     <REAL-Entries>2.18317249053127 0.458539126040147 -0.558327232311067 0.794967319906981 0 0 0 1 0 0 0 </REAL-Entries>
    </REAL-SparseArray>
   </VectorInstance>
   <VectorInstance id="163">
    <REAL-SparseArray n="11">
     <Indices>1 2 3 4 5 6 7 8 9 10 11 </Indices>
     <REAL-Entries>-0.0912959344554847 -0.574744247022924 4.47426617673937 -0.288025602763896 0 0 0 1 0 1 0 </REAL-Entries>
    </REAL-SparseArray>
   </VectorInstance>
   <VectorInstance id="164">
    <REAL-SparseArray n="11">
     <Indices>1 2 3 4 5 6 7 8 9 10 11 </Indices>
     <REAL-Entries>-0.358880455042161 0.458539126040147 1.95796947221415 2.19606905393645 0 0 0 1 0 0 0 </REAL-Entries>
    </REAL-SparseArray>
   </VectorInstance>
   <VectorInstance id="165">
    <REAL-SparseArray n="11">
     <Indices>1 2 3 4 5 6 7 8 9 10 11 </Indices>
     <REAL-Entries>-0.0912959344554847 0.458539126040147 -0.558327232311067 -0.289453516917968 0 0 0 1 1 0 1 </REAL-Entries>
    </REAL-SparseArray>
   </VectorInstance>
   <VectorInstance id="166">
    <REAL-SparseArray n="11">
     <Indices>1 2 3 4 5 6 7 8 9 10 11 </Indices>
     <REAL-Entries>-0.693361105775507 0.458539126040147 -0.558327232311067 -0.502212725874675 0 0 0 1 0 1 0 </REAL-Entries>
    </REAL-SparseArray>
   </VectorInstance>
   <VectorInstance id="167">
    <REAL-SparseArray n="11">
     <Indices>1 2 3 4 5 6 7 8 9 10 11 </Indices>
     <REAL-Entries>-0.626464975628838 -0.574744247022924 -0.558327232311067 -0.540846371227243 0 0 0 1 0 1 1 </REAL-Entries>
    </REAL-SparseArray>
   </VectorInstance>
   <VectorInstance id="168">
    <REAL-SparseArray n="11">
     <Indices>1 2 3 4 5 6 7 8 9 10 11 </Indices>
     <REAL-Entries>0.845249887597884 0.458539126040147 0.699821119951543 -0.189499526132938 0 0 0 1 1 0 1 </REAL-Entries>
    </REAL-SparseArray>
   </VectorInstance>
   <VectorInstance id="169">
    <REAL-SparseArray n="11">
     <Indices>1 2 3 4 5 6 7 8 9 10 11 </Indices>
     <REAL-Entries>0.644561497157877 0.458539126040147 -0.558327232311067 -0.508876325260344 0 0 0 1 0 1 0 </REAL-Entries>
    </REAL-SparseArray>
   </VectorInstance>
   <VectorInstance id="170">
    <REAL-SparseArray n="11">
     <Indices>1 2 3 4 5 6 7 8 9 10 11 </Indices>
     <REAL-Entries>-0.0243998043088155 -0.574744247022924 -0.558327232311067 -0.524345395262789 0 0 0 1 0 1 0 </REAL-Entries>
    </REAL-SparseArray>
   </VectorInstance>
   <VectorInstance id="171">
    <REAL-SparseArray n="11">
     <Indices>1 2 3 4 5 6 7 8 9 10 11 </Indices>
     <REAL-Entries>1.58110731921125 -0.574744247022924 -0.558327232311067 0.298133157482602 0 0 0 1 0 0 1 </REAL-Entries>
    </REAL-SparseArray>
   </VectorInstance>
   <VectorInstance id="172">
    <REAL-SparseArray n="11">
     <Indices>1 2 3 4 5 6 7 8 9 10 11 </Indices>
     <REAL-Entries>1.84869183979792 -0.574744247022924 -0.558327232311067 2.10031884242101 0 1 0 0 0 0 0 </REAL-Entries>
    </REAL-SparseArray>
   </VectorInstance>
   <VectorInstance id="173">
    <REAL-SparseArray n="11">
     <Indices>1 2 3 4 5 6 7 8 9 10 11 </Indices>
     <REAL-Entries>0.243184716277861 -0.574744247022924 -0.558327232311067 -0.18378786951665 0 0 0 1 0 0 1 </REAL-Entries>
    </REAL-SparseArray>
   </VectorInstance>
   <VectorInstance id="174">
    <REAL-SparseArray n="11">
     <Indices>1 2 3 4 5 6 7 8 9 10 11 </Indices>
     <REAL-Entries>1.11283440818456 0.458539126040147 -0.558327232311067 -0.413206076937529 0 0 0 1 0 1 0 </REAL-Entries>
    </REAL-SparseArray>
   </VectorInstance>
   <VectorInstance id="175">
    <REAL-SparseArray n="11">
     <Indices>1 2 3 4 5 6 7 8 9 10 11 </Indices>
     <REAL-Entries>1.31352279862457 -0.574744247022924 0.699821119951543 -0.194259239979844 0 0 0 1 1 0 0 </REAL-Entries>
    </REAL-SparseArray>
   </VectorInstance>
   <VectorInstance id="176">
    <REAL-SparseArray n="11">
     <Indices>1 2 3 4 5 6 7 8 9 10 11 </Indices>
     <REAL-Entries>-0.894049496215515 0.458539126040147 -0.558327232311067 1.38406187165425 0 1 0 0 0 0 0 </REAL-Entries>
    </REAL-SparseArray>
   </VectorInstance>
   <VectorInstance id="177">
    <REAL-SparseArray n="11">
     <Indices>1 2 3 4 5 6 7 8 9 10 11 </Indices>
     <REAL-Entries>1.84869183979792 -0.574744247022924 -0.558327232311067 -0.18378786951665 0 0 0 1 0 0 0 </REAL-Entries>
    </REAL-SparseArray>
   </VectorInstance>
   <VectorInstance id="178">
    <REAL-SparseArray n="11">
     <Indices>1 2 3 4 5 6 7 8 9 10 11 </Indices>
     <REAL-Entries>-0.626464975628838 0.458539126040147 -0.558327232311067 -0.502212725874675 0 0 0 1 0 1 0 </REAL-Entries>
    </REAL-SparseArray>
   </VectorInstance>
   <VectorInstance id="179">
    <REAL-SparseArray n="11">
     <Indices>1 2 3 4 5 6 7 8 9 10 11 </Indices>
     <REAL-Entries>0.912146017744553 -0.574744247022924 -0.558327232311067 -0.538386551111162 0 0 0 1 0 1 1 </REAL-Entries>
    </REAL-SparseArray>
   </VectorInstance>
   <VectorInstance id="180">
    <REAL-SparseArray n="11">
     <Indices>1 2 3 4 5 6 7 8 9 10 11 </Indices>
     <REAL-Entries>-1.83059531826888 0.458539126040147 0.699821119951543 -0.194259239979844 0 0 0 1 1 0 1 </REAL-Entries>
    </REAL-SparseArray>
   </VectorInstance>
   <VectorInstance id="181">
    <REAL-SparseArray n="11">
     <Indices>1 2 3 4 5 6 7 8 9 10 11 </Indices>
     <REAL-Entries>-0.894049496215515 -0.574744247022924 -0.558327232311067 -0.489361498488028 0 0 0 1 1 0 0 </REAL-Entries>
    </REAL-SparseArray>
   </VectorInstance>
   <VectorInstance id="182">
    <REAL-SparseArray n="11">
     <Indices>1 2 3 4 5 6 7 8 9 10 11 </Indices>
     <REAL-Entries>0.912146017744553 1.49182249910322 -0.558327232311067 1.02422750482814 0 0 1 0 0 0 1 </REAL-Entries>
    </REAL-SparseArray>
   </VectorInstance>
   <VectorInstance id="183">
    <REAL-SparseArray n="11">
     <Indices>1 2 3 4 5 6 7 8 9 10 11 </Indices>
     <REAL-Entries>0.443873106717869 -0.574744247022924 -0.558327232311067 -0.506734454029236 0 0 0 1 0 1 0 </REAL-Entries>
    </REAL-SparseArray>
   </VectorInstance>
   <VectorInstance id="184">
    <REAL-SparseArray n="11">
     <Indices>1 2 3 4 5 6 7 8 9 10 11 </Indices>
     <REAL-Entries>0.510769236864538 0.458539126040147 -0.558327232311067 1.02422750482814 0 0 0 1 0 0 1 </REAL-Entries>
    </REAL-SparseArray>
   </VectorInstance>
   <VectorInstance id="185">
    <REAL-SparseArray n="11">
     <Indices>1 2 3 4 5 6 7 8 9 10 11 </Indices>
     <REAL-Entries>1.17973053833123 -0.574744247022924 -0.558327232311067 -0.18378786951665 0 0 0 1 0 0 1 </REAL-Entries>
    </REAL-SparseArray>
   </VectorInstance>
   <VectorInstance id="186">
    <REAL-SparseArray n="11">
     <Indices>1 2 3 4 5 6 7 8 9 10 11 </Indices>
     <REAL-Entries>0.176288586131192 -0.574744247022924 1.95796947221415 -0.194259239979844 0 0 0 1 1 0 0 </REAL-Entries>
    </REAL-SparseArray>
   </VectorInstance>
   <VectorInstance id="187">
    <REAL-SparseArray n="11">
     <Indices>1 2 3 4 5 6 7 8 9 10 11 </Indices>
     <REAL-Entries>0.510769236864538 -0.574744247022924 -0.558327232311067 0.833838950951895 1 0 0 0 0 0 0 </REAL-Entries>
    </REAL-SparseArray>
   </VectorInstance>
   <VectorInstance id="188">
    <REAL-SparseArray n="11">
     <Indices>1 2 3 4 5 6 7 8 9 10 11 </Indices>
     <REAL-Entries>-0.425776585188831 -0.574744247022924 -0.558327232311067 -0.553299686536289 0 0 0 1 0 1 1 </REAL-Entries>
    </REAL-SparseArray>
   </VectorInstance>
   <VectorInstance id="189">
    <REAL-SparseArray n="11">
     <Indices>1 2 3 4 5 6 7 8 9 10 11 </Indices>
     <REAL-Entries>-1.83059531826888 3.55838924522936 1.95796947221415 -0.0916874065790155 0 0 0 1 0 1 1 </REAL-Entries>
    </REAL-SparseArray>
   </VectorInstance>
   <VectorInstance id="190">
    <REAL-SparseArray n="11">
     <Indices>1 2 3 4 5 6 7 8 9 10 11 </Indices>
     <REAL-Entries>-0.358880455042161 -0.574744247022924 -0.558327232311067 -0.689269480058089 0 0 0 1 0 1 1 </REAL-Entries>
    </REAL-SparseArray>
   </VectorInstance>
   <VectorInstance id="191">
    <REAL-SparseArray n="11">
     <Indices>1 2 3 4 5 6 7 8 9 10 11 </Indices>
     <REAL-Entries>-1.49611466753554 2.52510587216629 0.699821119951543 -0.288025602763896 0 0 0 1 0 1 0 </REAL-Entries>
    </REAL-SparseArray>
   </VectorInstance>
   <VectorInstance id="192">
    <REAL-SparseArray n="11">
     <Indices>1 2 3 4 5 6 7 8 9 10 11 </Indices>
     <REAL-Entries>-0.559568845482169 -0.574744247022924 -0.558327232311067 -0.541718350803997 0 0 1 0 0 1 0 </REAL-Entries>
    </REAL-SparseArray>
   </VectorInstance>
   <VectorInstance id="193">
    <REAL-SparseArray n="11">
     <Indices>1 2 3 4 5 6 7 8 9 10 11 </Indices>
     <REAL-Entries>-0.626464975628838 -0.574744247022924 -0.558327232311067 -0.543622236342759 0 0 0 1 0 1 0 </REAL-Entries>
    </REAL-SparseArray>
   </VectorInstance>
   <VectorInstance id="194">
    <REAL-SparseArray n="11">
     <Indices>1 2 3 4 5 6 7 8 9 10 11 </Indices>
     <REAL-Entries>2.31696475082461 -0.574744247022924 -0.558327232311067 -0.18378786951665 0 0 0 1 0 0 1 </REAL-Entries>
    </REAL-SparseArray>
   </VectorInstance>
   <VectorInstance id="195">
    <REAL-SparseArray n="11">
     <Indices>1 2 3 4 5 6 7 8 9 10 11 </Indices>
     <REAL-Entries>-0.894049496215515 3.55838924522936 1.95796947221415 -0.538386551111162 0 0 0 1 0 1 0 </REAL-Entries>
    </REAL-SparseArray>
   </VectorInstance>
   <VectorInstance id="196">
    <REAL-SparseArray n="11">
     <Indices>1 2 3 4 5 6 7 8 9 10 11 </Indices>
     <REAL-Entries>-0.0912959344554847 -0.574744247022924 1.95796947221415 -0.399006898589439 0 1 0 0 0 1 0 </REAL-Entries>
    </REAL-SparseArray>
   </VectorInstance>
  </VectorDictionary>
  <SupportVectorMachine targetCategory="[0,0]" alternateTargetCategory="(0,1]">
   <SupportVectors numberOfAttributes="11" numberOfSupportVectors="196">
    <SupportVector vectorId="1"/>
    <SupportVector vectorId="2"/>
    <SupportVector vectorId="3"/>
    <SupportVector vectorId="4"/>
    <SupportVector vectorId="5"/>
    <SupportVector vectorId="6"/>
    <SupportVector vectorId="7"/>
    <SupportVector vectorId="8"/>
    <SupportVector vectorId="9"/>
    <SupportVector vectorId="10"/>
    <SupportVector vectorId="11"/>
    <SupportVector vectorId="12"/>
    <SupportVector vectorId="13"/>
    <SupportVector vectorId="14"/>
    <SupportVector vectorId="15"/>
    <SupportVector vectorId="16"/>
    <SupportVector vectorId="17"/>
    <SupportVector vectorId="18"/>
    <SupportVector vectorId="19"/>
    <SupportVector vectorId="20"/>
    <SupportVector vectorId="21"/>
    <SupportVector vectorId="22"/>
    <SupportVector vectorId="23"/>
    <SupportVector vectorId="24"/>
    <SupportVector vectorId="25"/>
    <SupportVector vectorId="26"/>
    <SupportVector vectorId="27"/>
    <SupportVector vectorId="28"/>
    <SupportVector vectorId="29"/>
    <SupportVector vectorId="30"/>
    <SupportVector vectorId="31"/>
    <SupportVector vectorId="32"/>
    <SupportVector vectorId="33"/>
    <SupportVector vectorId="34"/>
    <SupportVector vectorId="35"/>
    <SupportVector vectorId="36"/>
    <SupportVector vectorId="37"/>
    <SupportVector vectorId="38"/>
    <SupportVector vectorId="39"/>
    <SupportVector vectorId="40"/>
    <SupportVector vectorId="41"/>
    <SupportVector vectorId="42"/>
    <SupportVector vectorId="43"/>
    <SupportVector vectorId="44"/>
    <SupportVector vectorId="45"/>
    <SupportVector vectorId="46"/>
    <SupportVector vectorId="47"/>
    <SupportVector vectorId="48"/>
    <SupportVector vectorId="49"/>
    <SupportVector vectorId="50"/>
    <SupportVector vectorId="51"/>
    <SupportVector vectorId="52"/>
    <SupportVector vectorId="53"/>
    <SupportVector vectorId="54"/>
    <SupportVector vectorId="55"/>
    <SupportVector vectorId="56"/>
    <SupportVector vectorId="57"/>
    <SupportVector vectorId="58"/>
    <SupportVector vectorId="59"/>
    <SupportVector vectorId="60"/>
    <SupportVector vectorId="61"/>
    <SupportVector vectorId="62"/>
    <SupportVector vectorId="63"/>
    <SupportVector vectorId="64"/>
    <SupportVector vectorId="65"/>
    <SupportVector vectorId="66"/>
    <SupportVector vectorId="67"/>
    <SupportVector vectorId="68"/>
    <SupportVector vectorId="69"/>
    <SupportVector vectorId="70"/>
    <SupportVector vectorId="71"/>
    <SupportVector vectorId="72"/>
    <SupportVector vectorId="73"/>
    <SupportVector vectorId="74"/>
    <SupportVector vectorId="75"/>
    <SupportVector vectorId="76"/>
    <SupportVector vectorId="77"/>
    <SupportVector vectorId="78"/>
    <SupportVector vectorId="79"/>
    <SupportVector vectorId="80"/>
    <SupportVector vectorId="81"/>
    <SupportVector vectorId="82"/>
    <SupportVector vectorId="83"/>
    <SupportVector vectorId="84"/>
    <SupportVector vectorId="85"/>
    <SupportVector vectorId="86"/>
    <SupportVector vectorId="87"/>
    <SupportVector vectorId="88"/>
    <SupportVector vectorId="89"/>
    <SupportVector vectorId="90"/>
    <SupportVector vectorId="91"/>
    <SupportVector vectorId="92"/>
    <SupportVector vectorId="93"/>
    <SupportVector vectorId="94"/>
    <SupportVector vectorId="95"/>
    <SupportVector vectorId="96"/>
    <SupportVector vectorId="97"/>
    <SupportVector vectorId="98"/>
    <SupportVector vectorId="99"/>
    <SupportVector vectorId="100"/>
    <SupportVector vectorId="101"/>
    <SupportVector vectorId="102"/>
    <SupportVector vectorId="103"/>
    <SupportVector vectorId="104"/>
    <SupportVector vectorId="105"/>
    <SupportVector vectorId="106"/>
    <SupportVector vectorId="107"/>
    <SupportVector vectorId="108"/>
    <SupportVector vectorId="109"/>
    <SupportVector vectorId="110"/>
    <SupportVector vectorId="111"/>
    <SupportVector vectorId="112"/>
    <SupportVector vectorId="113"/>
    <SupportVector vectorId="114"/>
    <SupportVector vectorId="115"/>
    <SupportVector vectorId="116"/>
    <SupportVector vectorId="117"/>
    <SupportVector vectorId="118"/>
    <SupportVector vectorId="119"/>
    <SupportVector vectorId="120"/>
    <SupportVector vectorId="121"/>
    <SupportVector vectorId="122"/>
    <SupportVector vectorId="123"/>
    <SupportVector vectorId="124"/>
    <SupportVector vectorId="125"/>
    <SupportVector vectorId="126"/>
    <SupportVector vectorId="127"/>
    <SupportVector vectorId="128"/>
    <SupportVector vectorId="129"/>
    <SupportVector vectorId="130"/>
    <SupportVector vectorId="131"/>
    <SupportVector vectorId="132"/>
    <SupportVector vectorId="133"/>
    <SupportVector vectorId="134"/>
    <SupportVector vectorId="135"/>
    <SupportVector vectorId="136"/>
    <SupportVector vectorId="137"/>
    <SupportVector vectorId="138"/>
    <SupportVector vectorId="139"/>
    <SupportVector vectorId="140"/>
    <SupportVector vectorId="141"/>
    <SupportVector vectorId="142"/>
    <SupportVector vectorId="143"/>
    <SupportVector vectorId="144"/>
    <SupportVector vectorId="145"/>
    <SupportVector vectorId="146"/>
    <SupportVector vectorId="147"/>
    <SupportVector vectorId="148"/>
    <SupportVector vectorId="149"/>
    <SupportVector vectorId="150"/>
    <SupportVector vectorId="151"/>
    <SupportVector vectorId="152"/>
    <SupportVector vectorId="153"/>
    <SupportVector vectorId="154"/>
    <SupportVector vectorId="155"/>
    <SupportVector vectorId="156"/>
    <SupportVector vectorId="157"/>
    <SupportVector vectorId="158"/>
    <SupportVector vectorId="159"/>
    <SupportVector vectorId="160"/>
    <SupportVector vectorId="161"/>
    <SupportVector vectorId="162"/>
    <SupportVector vectorId="163"/>
    <SupportVector vectorId="164"/>
    <SupportVector vectorId="165"/>
    <SupportVector vectorId="166"/>
    <SupportVector vectorId="167"/>
    <SupportVector vectorId="168"/>
    <SupportVector vectorId="169"/>
    <SupportVector vectorId="170"/>
    <SupportVector vectorId="171"/>
    <SupportVector vectorId="172"/>
    <SupportVector vectorId="173"/>
    <SupportVector vectorId="174"/>
    <SupportVector vectorId="175"/>
    <SupportVector vectorId="176"/>
    <SupportVector vectorId="177"/>
    <SupportVector vectorId="178"/>
    <SupportVector vectorId="179"/>
    <SupportVector vectorId="180"/>
    <SupportVector vectorId="181"/>
    <SupportVector vectorId="182"/>
    <SupportVector vectorId="183"/>
    <SupportVector vectorId="184"/>
    <SupportVector vectorId="185"/>
    <SupportVector vectorId="186"/>
    <SupportVector vectorId="187"/>
    <SupportVector vectorId="188"/>
    <SupportVector vectorId="189"/>
    <SupportVector vectorId="190"/>
    <SupportVector vectorId="191"/>
    <SupportVector vectorId="192"/>
    <SupportVector vectorId="193"/>
    <SupportVector vectorId="194"/>
    <SupportVector vectorId="195"/>
    <SupportVector vectorId="196"/>
   </SupportVectors>
   <Coefficients absoluteValue="0.119351764666581" numberOfCoefficients="196">
    <Coefficient value="1"/>
    <Coefficient value="-0.613213100979711"/>
    <Coefficient value="-1"/>
    <Coefficient value="0.595289582321358"/>
    <Coefficient value="1"/>
    <Coefficient value="0.364653510914345"/>
    <Coefficient value="-1"/>
    <Coefficient value="-1"/>
    <Coefficient value="0.243024248385867"/>
    <Coefficient value="1"/>
    <Coefficient value="1"/>
    <Coefficient value="1"/>
    <Coefficient value="1"/>
    <Coefficient value="1"/>
    <Coefficient value="-1"/>
    <Coefficient value="-1"/>
    <Coefficient value="-0.673171999264446"/>
    <Coefficient value="1"/>
    <Coefficient value="-0.556479700050573"/>
    <Coefficient value="1"/>
    <Coefficient value="1"/>
    <Coefficient value="-1"/>
    <Coefficient value="-1"/>
    <Coefficient value="0.786176191517212"/>
    <Coefficient value="-1"/>
    <Coefficient value="1"/>
    <Coefficient value="0.760350530203961"/>
    <Coefficient value="1"/>
    <Coefficient value="-1"/>
    <Coefficient value="0.164692094269946"/>
    <Coefficient value="-0.770312684092368"/>
    <Coefficient value="1"/>
    <Coefficient value="-0.102218128404805"/>
    <Coefficient value="-1"/>
    <Coefficient value="-0.880868247534019"/>
    <Coefficient value="-1"/>
    <Coefficient value="-1"/>
    <Coefficient value="0.836080984449739"/>
    <Coefficient value="1"/>
    <Coefficient value="-1"/>
    <Coefficient value="-1"/>
    <Coefficient value="0.714894521588949"/>
    <Coefficient value="0.0183657993356938"/>
    <Coefficient value="-1"/>
    <Coefficient value="1"/>
    <Coefficient value="-1"/>
    <Coefficient value="-1"/>
    <Coefficient value="0.171368142672793"/>
    <Coefficient value="-0.511597829683667"/>
    <Coefficient value="-1"/>
    <Coefficient value="-1"/>
    <Coefficient value="1"/>
    <Coefficient value="1"/>
    <Coefficient value="-1"/>
    <Coefficient value="1"/>
    <Coefficient value="-1"/>
    <Coefficient value="-1"/>
    <Coefficient value="-1"/>
    <Coefficient value="1"/>
    <Coefficient value="1"/>
    <Coefficient value="1"/>
    <Coefficient value="-1"/>
    <Coefficient value="0.607966204137311"/>
    <Coefficient value="-1"/>
    <Coefficient value="1"/>
    <Coefficient value="0.248373220668676"/>
    <Coefficient value="1"/>
    <Coefficient value="-1"/>
    <Coefficient value="-1"/>
    <Coefficient value="0.140912693944241"/>
    <Coefficient value="0.206300489508888"/>
    <Coefficient value="-1"/>
    <Coefficient value="-0.846210321371223"/>
    <Coefficient value="-0.00321400220195533"/>
    <Coefficient value="1"/>
    <Coefficient value="-1"/>
    <Coefficient value="-1"/>
    <Coefficient value="-1"/>
    <Coefficient value="1"/>
    <Coefficient value="-0.0350581627541702"/>
    <Coefficient value="-0.0405064654607887"/>
    <Coefficient value="-0.464456197980668"/>
    <Coefficient value="-1"/>
    <Coefficient value="-1"/>
    <Coefficient value="0.873744253739757"/>
    <Coefficient value="1"/>
    <Coefficient value="0.974720194918145"/>
    <Coefficient value="-0.398855011529393"/>
    <Coefficient value="0.261547581058929"/>
    <Coefficient value="1"/>
    <Coefficient value="-1"/>
    <Coefficient value="-1"/>
    <Coefficient value="1"/>
    <Coefficient value="-1"/>
    <Coefficient value="0.715618893539014"/>
    <Coefficient value="-1"/>
    <Coefficient value="-1"/>
    <Coefficient value="1"/>
    <Coefficient value="-0.675910679345021"/>
    <Coefficient value="0.61170085155234"/>
    <Coefficient value="-0.765720933386894"/>
    <Coefficient value="0.797523830449009"/>
    <Coefficient value="-1"/>
    <Coefficient value="1"/>
    <Coefficient value="-1"/>
    <Coefficient value="-0.591441367256468"/>
    <Coefficient value="-0.31904713219185"/>
    <Coefficient value="-0.272724860898792"/>
    <Coefficient value="-1"/>
    <Coefficient value="-0.225517149112088"/>
    <Coefficient value="0.64502938396274"/>
    <Coefficient value="-0.224378466449607"/>
    <Coefficient value="1"/>
    <Coefficient value="-1"/>
    <Coefficient value="0.781284436938991"/>
    <Coefficient value="1"/>
    <Coefficient value="1"/>
    <Coefficient value="0.803152465445088"/>
    <Coefficient value="1"/>
    <Coefficient value="-1"/>
    <Coefficient value="1"/>
    <Coefficient value="-1"/>
    <Coefficient value="-1"/>
    <Coefficient value="-1"/>
    <Coefficient value="-1"/>
    <Coefficient value="1"/>
    <Coefficient value="1"/>
    <Coefficient value="-1"/>
    <Coefficient value="-0.206940192810118"/>
    <Coefficient value="-0.825782441721606"/>
    <Coefficient value="-1"/>
    <Coefficient value="1"/>
    <Coefficient value="1"/>
    <Coefficient value="-1"/>
    <Coefficient value="0.813258597050463"/>
    <Coefficient value="-0.0467545579310386"/>
    <Coefficient value="-0.346770155472083"/>
    <Coefficient value="1"/>
    <Coefficient value="-0.0718080132609744"/>
    <Coefficient value="-0.255076795727192"/>
    <Coefficient value="0.92874248670999"/>
    <Coefficient value="-1"/>
    <Coefficient value="-1"/>
    <Coefficient value="0.879180025208413"/>
    <Coefficient value="-0.297889822032527"/>
    <Coefficient value="1"/>
    <Coefficient value="1"/>
    <Coefficient value="1"/>
    <Coefficient value="-1"/>
    <Coefficient value="0.1524258813204"/>
    <Coefficient value="-1"/>
    <Coefficient value="1"/>
    <Coefficient value="-0.108361553253381"/>
    <Coefficient value="-1"/>
    <Coefficient value="-1"/>
    <Coefficient value="-1"/>
    <Coefficient value="1"/>
    <Coefficient value="1"/>
    <Coefficient value="-1"/>
    <Coefficient value="1"/>
    <Coefficient value="0.675991541109497"/>
    <Coefficient value="0.17260242854845"/>
    <Coefficient value="-0.677133513685794"/>
    <Coefficient value="-1"/>
    <Coefficient value="-0.363432204739727"/>
    <Coefficient value="-1"/>
    <Coefficient value="1"/>
    <Coefficient value="-0.784365196500034"/>
    <Coefficient value="-1"/>
    <Coefficient value="-1"/>
    <Coefficient value="-0.313743633366872"/>
    <Coefficient value="0.372278855887137"/>
    <Coefficient value="1"/>
    <Coefficient value="-1"/>
    <Coefficient value="0.361596353599123"/>
    <Coefficient value="0.758884066769282"/>
    <Coefficient value="1"/>
    <Coefficient value="-1"/>
    <Coefficient value="1"/>
    <Coefficient value="0.856172715061512"/>
    <Coefficient value="1"/>
    <Coefficient value="-1"/>
    <Coefficient value="-1"/>
    <Coefficient value="1"/>
    <Coefficient value="1"/>
    <Coefficient value="1"/>
    <Coefficient value="0.0330590913181729"/>
    <Coefficient value="1"/>
    <Coefficient value="1"/>
    <Coefficient value="1"/>
    <Coefficient value="-0.795354444913485"/>
    <Coefficient value="1"/>
    <Coefficient value="1"/>
    <Coefficient value="-0.262647182742097"/>
    <Coefficient value="1"/>
    <Coefficient value="1"/>
   </Coefficients>
  </SupportVectorMachine>
 </SupportVectorMachineModel>
</PMML>
